<?xml version="1.0"?>
<opencv_storage>
<cascade>
  <stageType>BOOST</stageType>
  <featureType>LBP</featureType>
  <height>34</height>
  <width>58</width>
  <stageParams>
    <boostType>GAB</boostType>
    <minHitRate>9.9500000476837158e-01</minHitRate>
    <maxFalseAlarm>5.0000000000000000e-01</maxFalseAlarm>
    <weightTrimRate>9.4999999999999996e-01</weightTrimRate>
    <maxDepth>1</maxDepth>
    <maxWeakCount>100</maxWeakCount></stageParams>
  <featureParams>
    <maxCatCount>256</maxCatCount>
    <featSize>1</featSize></featureParams>
  <stageNum>10</stageNum>
  <stages>
    <!-- stage 0 -->
    <_>
      <maxWeakCount>3</maxWeakCount>
      <stageThreshold>-1.0200651884078979e+00</stageThreshold>
      <weakClassifiers>
        <_>
          <internalNodes>
            0 -1 12 -778567907 -1056881085 -1073623005 1494601739
            -1040138079 -2146713592 -2138931021 -82587257</internalNodes>
          <leafValues>
            -8.0314958095550537e-01 6.6666668653488159e-01</leafValues></_>
        <_>
          <internalNodes>
            0 -1 27 -2088240393 -1978613485 1342391831 1304944898
            -934551105 -1476198269 -1996236631 -570507121</internalNodes>
          <leafValues>
            -7.4524581432342529e-01 6.6426986455917358e-01</leafValues></_>
        <_>
          <internalNodes>
            0 -1 4 2061169666 -577159100 1090589071 -49708479
            -1677684059 -880803800 -1878460325 1906659663</internalNodes>
          <leafValues>
            -8.8118547201156616e-01 5.6464999914169312e-01</leafValues></_></weakClassifiers></_>
    <!-- stage 1 -->
    <_>
      <maxWeakCount>3</maxWeakCount>
      <stageThreshold>-1.0027564764022827e+00</stageThreshold>
      <weakClassifiers>
        <_>
          <internalNodes>
            0 -1 13 -242090539 -712654709 -1056931495 -788512237
            -536803182 -1879048192 -805156661 -779628109</internalNodes>
          <leafValues>
            -7.8781926631927490e-01 6.4143425226211548e-01</leafValues></_>
        <_>
          <internalNodes>
            0 -1 0 -347422209 -1323827197 -1878863841 -788311727
            -2130652482 -1861713917 -804880237 1776242689</internalNodes>
          <leafValues>
            -8.1613677740097046e-01 6.0152947902679443e-01</leafValues></_>
        <_>
          <internalNodes>
            0 -1 21 -2111578179 -938539516 269025308 -733523951
            -1874222970 -1475821438 940376199 1107033075</internalNodes>
          <leafValues>
            -8.1646668910980225e-01 6.6865628957748413e-01</leafValues></_></weakClassifiers></_>
    <!-- stage 2 -->
    <_>
      <maxWeakCount>3</maxWeakCount>
      <stageThreshold>-1.0214143991470337e+00</stageThreshold>
      <weakClassifiers>
        <_>
          <internalNodes>
            0 -1 15 -776211469 1359298560 1090519059 -788316159
            -1013983006 -259619840 -1988046720 -1724910921</internalNodes>
          <leafValues>
            -8.2572615146636963e-01 5.6834530830383301e-01</leafValues></_>
        <_>
          <internalNodes>
            0 -1 23 -1898712269 -1064206262 3248385 -794721919
            -1727872851 -1476034554 1224823950 -912076325</internalNodes>
          <leafValues>
            -8.0256861448287964e-01 5.8686071634292603e-01</leafValues></_>
        <_>
          <internalNodes>
            0 -1 2 -1051541025 1217527811 -2147463139 -149747434
            -805150535 -2130638848 1090734225 -142646702</internalNodes>
          <leafValues>
            -7.8254902362823486e-01 6.7973685264587402e-01</leafValues></_></weakClassifiers></_>
    <!-- stage 3 -->
    <_>
      <maxWeakCount>3</maxWeakCount>
      <stageThreshold>-8.7169176340103149e-01</stageThreshold>
      <weakClassifiers>
        <_>
          <internalNodes>
            0 -1 19 -536873093 -5242887 -1074855944 -135397695
            -704643599 -1090529032 -402391045 -772022785</internalNodes>
          <leafValues>
            -7.1119135618209839e-01 7.4757283926010132e-01</leafValues></_>
        <_>
          <internalNodes>
            0 -1 10 -1726845551 1430274056 -1056857845 1359167506
            -1727821685 -2013165566 -1189586776 -1170742541</internalNodes>
          <leafValues>
            -7.8836947679519653e-01 6.2282204627990723e-01</leafValues></_>
        <_>
          <internalNodes>
            0 -1 9 -115347055 -787804095 -2147467251 -788492223
            -872414801 1191252000 1074299643 252338490</internalNodes>
          <leafValues>
            -7.8332245349884033e-01 6.5520179271697998e-01</leafValues></_></weakClassifiers></_>
    <!-- stage 4 -->
    <_>
      <maxWeakCount>3</maxWeakCount>
      <stageThreshold>-9.3527108430862427e-01</stageThreshold>
      <weakClassifiers>
        <_>
          <internalNodes>
            0 -1 5 -615198322 -520052736 -2130706301 -720207861
            -502693686 -2088189944 1342755727 -81573305</internalNodes>
          <leafValues>
            -8.3947938680648804e-01 4.9163880944252014e-01</leafValues></_>
        <_>
          <internalNodes>
            0 -1 11 -251402247 -805182904 151555 1090724497 21143571
            -1978988541 536990340 -1328817197</internalNodes>
          <leafValues>
            -7.2821396589279175e-01 6.8677598237991333e-01</leafValues></_>
        <_>
          <internalNodes>
            0 -1 17 83955729 -721420288 -805269039 520163397 -2013232966
            -1328545658 -2139062135 -2012925287</internalNodes>
          <leafValues>
            -6.9869589805603027e-01 7.3295748233795166e-01</leafValues></_></weakClassifiers></_>
    <!-- stage 5 -->
    <_>
      <maxWeakCount>2</maxWeakCount>
      <stageThreshold>-2.7155768871307373e-01</stageThreshold>
      <weakClassifiers>
        <_>
          <internalNodes>
            0 -1 25 -2010385445 -1056866112 200722 -515843976
            -2144669221 -1710718312 151187865 -591398657</internalNodes>
          <leafValues>
            -7.8174602985382080e-01 6.0156250000000000e-01</leafValues></_>
        <_>
          <internalNodes>
            0 -1 16 -776212008 18206737 -1056882667 1192284502
            -1869819221 134352898 1200672984 731865543</internalNodes>
          <leafValues>
            -8.5362464189529419e-01 5.1018834114074707e-01</leafValues></_></weakClassifiers></_>
    <!-- stage 6 -->
    <_>
      <maxWeakCount>3</maxWeakCount>
      <stageThreshold>-8.1226736307144165e-01</stageThreshold>
      <weakClassifiers>
        <_>
          <internalNodes>
            0 -1 24 -2130255945 -955743231 272715861 -682405631 16966571
            -2004164096 -461057942 -618929929</internalNodes>
          <leafValues>
            -7.3584908246994019e-01 6.5217393636703491e-01</leafValues></_>
        <_>
          <internalNodes>
            0 -1 18 -993688109 -1739227103 -2080358229 -721072109
            1157991048 -64974848 71699 -1357329029</internalNodes>
          <leafValues>
            -7.0469582080841064e-01 6.7861765623092651e-01</leafValues></_>
        <_>
          <internalNodes>
            0 -1 26 -1512440833 -2068348775 -1056862064 1709965781
            -897465024 -1895645183 1208513788 -628237575</internalNodes>
          <leafValues>
            -7.5503593683242798e-01 7.0251798629760742e-01</leafValues></_></weakClassifiers></_>
    <!-- stage 7 -->
    <_>
      <maxWeakCount>2</maxWeakCount>
      <stageThreshold>-2.0163404941558838e-01</stageThreshold>
      <weakClassifiers>
        <_>
          <internalNodes>
            0 -1 6 -2123119668 1224736769 35343 -921698288 278762
            1124073480 528554 2134082563</internalNodes>
          <leafValues>
            -8.8744586706161499e-01 5.7046979665756226e-01</leafValues></_>
        <_>
          <internalNodes>
            0 -1 20 1074397441 -784264958 536872272 822149136
            -2147385172 -2069331840 -2012946301 -225537837</internalNodes>
          <leafValues>
            -7.7210384607315063e-01 7.4684005975723267e-01</leafValues></_></weakClassifiers></_>
    <!-- stage 8 -->
    <_>
      <maxWeakCount>3</maxWeakCount>
      <stageThreshold>-9.8335587978363037e-01</stageThreshold>
      <weakClassifiers>
        <_>
          <internalNodes>
            0 -1 14 -69213997 -783496488 285295059 1812709457
            -1316912269 680149056 17883021 -204619213</internalNodes>
          <leafValues>
            -7.5095784664154053e-01 6.3865548372268677e-01</leafValues></_>
        <_>
          <internalNodes>
            0 -1 1 -328668170 -922517375 1225375817 1359171585
            -929998453 1485013123 -402407145 931086339</internalNodes>
          <leafValues>
            -8.5589408874511719e-01 5.4477578401565552e-01</leafValues></_>
        <_>
          <internalNodes>
            0 -1 7 -685969239 -1118600549 -1877458935 1947599123
            1757544715 -116751821 1216381138 -112311714</internalNodes>
          <leafValues>
            -7.6611727476119995e-01 6.5577745437622070e-01</leafValues></_></weakClassifiers></_>
    <!-- stage 9 -->
    <_>
      <maxWeakCount>3</maxWeakCount>
      <stageThreshold>-9.0478283166885376e-01</stageThreshold>
      <weakClassifiers>
        <_>
          <internalNodes>
            0 -1 8 1627771276 286393217 269484351 -795797247 -2013166596
            -1954008950 134220433 -503125854</internalNodes>
          <leafValues>
            -8.2520323991775513e-01 6.1940300464630127e-01</leafValues></_>
        <_>
          <internalNodes>
            0 -1 22 -2096959117 -1940909037 335549848 -922746864
            -905019224 -1933311808 -2147428097 -678444928</internalNodes>
          <leafValues>
            -7.5536537170410156e-01 6.6723883152008057e-01</leafValues></_>
        <_>
          <internalNodes>
            0 -1 3 -1039007383 1897005187 462721033 -988807168 403300529
            1561071745 -1023405957 -541896557</internalNodes>
          <leafValues>
            -7.4681836366653442e-01 7.0215827226638794e-01</leafValues></_></weakClassifiers></_></stages>
  <features>
    <_>
      <rect>
        0 0 9 9</rect></_>
    <_>
      <rect>
        0 4 7 10</rect></_>
    <_>
      <rect>
        0 7 9 5</rect></_>
    <_>
      <rect>
        0 22 8 4</rect></_>
    <_>
      <rect>
        1 1 16 6</rect></_>
    <_>
      <rect>
        1 6 11 9</rect></_>
    <_>
      <rect>
        7 0 15 11</rect></_>
    <_>
      <rect>
        8 25 8 3</rect></_>
    <_>
      <rect>
        14 11 14 3</rect></_>
    <_>
      <rect>
        16 3 9 6</rect></_>
    <_>
      <rect>
        19 7 11 7</rect></_>
    <_>
      <rect>
        22 13 10 7</rect></_>
    <_>
      <rect>
        23 3 10 10</rect></_>
    <_>
      <rect>
        24 0 11 11</rect></_>
    <_>
      <rect>
        25 9 9 8</rect></_>
    <_>
      <rect>
        26 8 8 7</rect></_>
    <_>
      <rect>
        27 9 10 8</rect></_>
    <_>
      <rect>
        29 0 7 1</rect></_>
    <_>
      <rect>
        31 7 6 4</rect></_>
    <_>
      <rect>
        33 8 6 7</rect></_>
    <_>
      <rect>
        35 3 4 3</rect></_>
    <_>
      <rect>
        36 15 7 6</rect></_>
    <_>
      <rect>
        37 27 5 2</rect></_>
    <_>
      <rect>
        40 9 6 6</rect></_>
    <_>
      <rect>
        40 17 6 5</rect></_>
    <_>
      <rect>
        43 5 5 9</rect></_>
    <_>
      <rect>
        43 22 5 4</rect></_>
    <_>
      <rect>
        43 24 5 3</rect></_></features></cascade>
</opencv_storage>
