<?xml version="1.0"?>
<opencv_storage>
<stage9>
  <maxWeakCount>4</maxWeakCount>
  <stageThreshold>-6.1447858810424805e-01</stageThreshold>
  <weakClassifiers>
    <_>
      <internalNodes>
        0 -1 31316 -934547866 -671039230 16859412 -719989501 58379
        -2069856256 1100579485 1165478347</internalNodes>
      <leafValues>
        -7.2921615839004517e-01 5.3022450208663940e-01</leafValues></_>
    <_>
      <internalNodes>
        0 -1 31814 -1294139553 -1828471487 402788375 387940641 142770589
        402702336 1343029387 501979530</internalNodes>
      <leafValues>
        -7.5104022026062012e-01 4.9418753385543823e-01</leafValues></_>
    <_>
      <internalNodes>
        0 -1 24195 -128683952 -752287357 1074549000 -167395325
        -500653124 -670007269 -2000629717 -602217729</internalNodes>
      <leafValues>
        -7.9509508609771729e-01 4.9322098493576050e-01</leafValues></_>
    <_>
      <internalNodes>
        0 -1 9426 -662302222 1393402003 85223452 -50003968 2013323434
        278954139 167772394 830472343</internalNodes>
      <leafValues>
        -8.4379553794860840e-01 4.7491341829299927e-01</leafValues></_></weakClassifiers></stage9>
</opencv_storage>
